svm_type c_svc
kernel_type rbf
gamma 0.000488281
nr_class 4
total_sv 100
rho -0.0452252 0.0188491 -0.224661 -0.134766 -0.266357 -0.136047
label 1 2 3 0
nr_sv 25 25 25 25
SV
106.3441824780183 106.4171467673929 104.963819884993 1:-1 2:1 5:-1 6:-1 7:1 8:-1 
2048 2048 2048 1:-0.203576 2:-0.923784 5:0.999997 6:1 7:-0.999937 8:0.999169 
2048 2048 2048 1:-0.132375 2:-0.928718 5:0.999994 6:1 7:-0.999941 8:0.998201 
2048 2048 2048 1:-0.062635 2:-0.93402 5:0.99999 6:1 7:-0.999945 8:0.997168 
2048 2048 2048 1:0.00920464 2:-0.93915 5:0.999987 6:1 7:-0.999949 8:0.996205 
2048 2048 2048 1:0.0768581 2:-0.94501 5:0.999984 6:1 7:-0.999954 8:0.995149 
2048 2048 2048 1:0.150194 2:-0.949713 5:0.999981 6:1 7:-0.999957 8:0.994204 
2048 2048 2048 1:0.218704 2:-0.954867 5:0.999977 6:1 7:-0.999961 8:0.99318 
2048 2048 2048 1:0.290218 2:-0.959803 5:0.999974 6:1 7:-0.999965 8:0.992268 
2048 2048 2048 1:0.360139 2:-0.964858 5:0.999971 6:1 7:-0.999969 8:0.991265 
2048 2048 2048 1:0.43216 2:-0.969745 5:0.999968 6:1 7:-0.999973 8:0.990322 
2048 2048 2048 1:0.500368 2:-0.975114 5:0.999964 6:1 7:-0.999977 8:0.98931 
2048 2048 2048 1:0.570386 2:-0.980191 5:0.999961 6:1 7:-0.999981 8:0.98834 
2048 2048 2048 1:0.637171 2:-0.985419 5:0.999958 6:1 7:-0.999985 8:0.987276 
2048 2048 2048 1:0.708516 2:-0.990247 5:0.999955 6:1 7:-0.999989 8:0.986353 
2048 2048 2048 1:0.777243 2:-0.995459 5:0.999952 6:1 7:-0.999993 8:0.985335 
2048 2048 2048 1:0.941841 2:-1 5:0.999949 6:1 7:-0.999996 8:0.984513 
2048 2048 2048 1:0.971831 2:-0.996553 5:0.99995 6:1 7:-0.999996 8:0.984744 
2048 2048 2048 1:0.934313 2:-0.992837 5:0.999952 6:1 7:-0.999995 8:0.985101 
2048 2048 2048 1:0.893453 2:-0.989664 5:0.999954 6:1 7:-0.999994 8:0.985346 
2048 2048 2048 1:0.854813 2:-0.986141 5:0.999956 6:1 7:-0.999993 8:0.985668 
2048 2048 2048 1:0.815208 2:-0.982847 5:0.999958 6:1 7:-0.999992 8:0.985911 
2048 2048 2048 1:0.776157 2:-0.979344 5:0.99996 6:1 7:-0.999992 8:0.986223 
2048 2048 2048 1:0.607687 2:-0.97976 5:0.999959 6:1 7:-0.999993 8:0.985972 
2048 2048 2048 1:0.677415 2:-0.984806 5:0.999956 6:1 7:-0.999997 8:0.984982 
-773.913375686977 2048 2048 1:-0.253544 2:-0.91928 5:1 6:1 7:-0.999934 8:1 
-2048 2048 2048 1:-0.184865 2:-0.924974 5:0.999996 6:1 7:-0.999938 8:0.99893 
-2048 2048 2048 1:-0.113363 2:-0.929904 5:0.999993 6:1 7:-0.999942 8:0.997981 
-2048 2048 2048 1:-0.0448047 2:-0.935257 5:0.99999 6:1 7:-0.999946 8:0.996902 
-2048 2048 2048 1:0.0286152 2:-0.940178 5:0.999987 6:1 7:-0.99995 8:0.995983 
-2048 2048 2048 1:0.0942299 2:-0.946243 5:0.999983 6:1 7:-0.999955 8:0.994889 
-2037.451188981429 2048 2048 1:0.16765 2:-0.95103 5:0.99998 6:1 7:-0.999958 8:0.993951 
-2048 2048 2048 1:0.235569 2:-0.956311 5:0.999976 6:1 7:-0.999963 8:0.992911 
-2048 2048 2048 1:0.30736 2:-0.961053 5:0.999973 6:1 7:-0.999966 8:0.992031 
-2048 2048 2048 1:0.376329 2:-0.966449 5:0.99997 6:1 7:-0.99997 8:0.990989 
-2048 2048 2048 1:0.449061 2:-0.971156 5:0.999967 6:1 7:-0.999974 8:0.990068 
-2048 2048 2048 1:0.516316 2:-0.976564 5:0.999963 6:1 7:-0.999978 8:0.989012 
-2048 2048 2048 1:0.586057 2:-0.981551 5:0.99996 6:1 7:-0.999982 8:0.988067 
-2048 2048 2048 1:0.652805 2:-0.986986 5:0.999957 6:1 7:-0.999986 8:0.987001 
-2048 2048 2048 1:0.724886 2:-0.991876 5:0.999954 6:1 7:-0.99999 8:0.986113 
-1390.979617809611 2048 2048 1:0.793312 2:-0.996957 5:0.999951 6:1 7:-0.999994 8:0.985081 
-2048 2048 2048 1:1 2:-0.999479 5:0.999949 6:1 7:-0.999996 8:0.984556 
-2048 2048 2048 1:0.961746 2:-0.995692 5:0.999951 6:1 7:-0.999996 8:0.984824 
-2048 2048 2048 1:0.923986 2:-0.99205 5:0.999953 6:1 7:-0.999994 8:0.985183 
-2048 2048 2048 1:0.883633 2:-0.988828 5:0.999955 6:1 7:-0.999994 8:0.985423 
-2048 2048 2048 1:0.846175 2:-0.98509 5:0.999957 6:1 7:-0.999993 8:0.985754 
-2048 2048 2048 1:0.805472 2:-0.982031 5:0.999958 6:1 7:-0.999992 8:0.985991 
-2048 2048 2048 1:0.767242 2:-0.978469 5:0.99996 6:1 7:-0.999991 8:0.986323 
-2048 2048 2048 1:0.626446 2:-0.980778 5:0.999958 6:1 7:-0.999994 8:0.985728 
-2048 2048 2048 1:0.696138 2:-0.985804 5:0.999955 6:1 7:-0.999998 8:0.984748 
-2048 -2048 2048 1:-0.236389 2:-0.9206 5:0.999999 6:1 7:-0.999935 8:0.999752 
-2048 -2048 2048 1:-0.166709 2:-0.925982 5:0.999996 6:1 7:-0.999939 8:0.998687 
-2048 -2048 2048 1:-0.094242 2:-0.930836 5:0.999993 6:1 7:-0.999943 8:0.99776 
-2048 -2048 2048 1:-0.0260939 2:-0.936373 5:0.999989 6:1 7:-0.999947 8:0.996668 
-2048 -2048 2048 1:0.0469883 2:-0.941303 5:0.999986 6:1 7:-0.999951 8:0.995748 
-714.9711849345742 -2048 2048 1:0.113737 2:-0.947124 5:0.999982 6:1 7:-0.999955 8:0.994655 
-2048 -2048 2048 1:0.186542 2:-0.951931 5:0.999979 6:1 7:-0.999959 8:0.993715 
-2048 -2048 2048 1:0.253906 2:-0.957522 5:0.999976 6:1 7:-0.999963 8:0.992682 
-2048 -2048 2048 1:0.326023 2:-0.9622 5:0.999973 6:1 7:-0.999967 8:0.991804 
-2048 -2048 2048 1:0.394364 2:-0.967769 5:0.999969 6:1 7:-0.999971 8:0.99075 
-2048 -2048 2048 1:0.466348 2:-0.972519 5:0.999966 6:1 7:-0.999975 8:0.989829 
-2048 -2048 2048 1:0.533797 2:-0.977817 5:0.999963 6:1 7:-0.999979 8:0.98875 
-2048 -2048 2048 1:0.603006 2:-0.982908 5:0.999959 6:1 7:-0.999983 8:0.987802 
-2048 -2048 2048 1:0.66961 2:-0.98855 5:0.999956 6:1 7:-0.999987 8:0.986742 
-2048 -2048 2048 1:0.741522 2:-0.993203 5:0.999953 6:1 7:-0.999991 8:0.985834 
-1439.445961832819 -2048 2048 1:0.809164 2:-0.998624 5:0.999949 6:1 7:-0.999995 8:0.984826 
-2048 -2048 2048 1:0.989987 2:-0.998781 5:0.999949 6:1 7:-0.999996 8:0.984615 
-2048 -2048 2048 1:0.950116 2:-0.995271 5:0.999951 6:1 7:-0.999996 8:0.984884 
-2048 -2048 2048 1:0.912827 2:-0.991355 5:0.999953 6:1 7:-0.999994 8:0.985239 
-2048 -2048 2048 1:0.872836 2:-0.988096 5:0.999955 6:1 7:-0.999994 8:0.985479 
-2048 -2048 2048 1:0.835463 2:-0.984393 5:0.999957 6:1 7:-0.999993 8:0.985827 
-2048 -2048 2048 1:0.794458 2:-0.981356 5:0.999958 6:1 7:-0.999992 8:0.986047 
-2048 -2048 2048 1:0.728035 2:-0.977936 5:0.99996 6:1 7:-0.999991 8:0.986375 
-2048 -2048 2048 1:0.643782 2:-0.981917 5:0.999958 6:1 7:-0.999995 8:0.985481 
-2048 -2048 2048 1:0.714246 2:-0.986857 5:0.999954 6:1 7:-0.999999 8:0.984505 
-1478.042632873996 -2048 -2048 1:-0.220537 2:-0.922345 5:0.999998 6:1 7:-0.999936 8:0.999478 
-2048 -2048 -2048 1:-0.150218 2:-0.927452 5:0.999995 6:1 7:-0.99994 8:0.998422 
-2048 -2048 -2048 1:-0.0777146 2:-0.9323 5:0.999992 6:1 7:-0.999944 8:0.99749 
-2048 -2048 -2048 1:-0.00896336 2:-0.937984 5:0.999988 6:1 7:-0.999948 8:0.996422 
-2047.633629659598 -2048 -2048 1:0.0621645 2:-0.94311 5:0.999985 6:1 7:-0.999952 8:0.995469 
-2048 -2048 -2048 1:0.132038 2:-0.948468 5:0.999982 6:1 7:-0.999956 8:0.994436 
-2048 -2048 -2048 1:0.203274 2:-0.953324 5:0.999979 6:1 7:-0.99996 8:0.993478 
-2048 -2048 -2048 1:0.272713 2:-0.958436 5:0.999975 6:1 7:-0.999964 8:0.992466 
-2048 -2048 -2048 1:0.344444 2:-0.96323 5:0.999972 6:1 7:-0.999968 8:0.991565 
-2048 -2048 -2048 1:0.413038 2:-0.968776 5:0.999969 6:1 7:-0.999972 8:0.990529 
-1852.414038934188 -2048 -2048 1:0.484721 2:-0.973626 5:0.999965 6:1 7:-0.999976 8:0.9896 
-2048 -2048 -2048 1:0.552483 2:-0.979048 5:0.999962 6:1 7:-0.99998 8:0.988533 
-2048 -2048 -2048 1:0.620728 2:-0.98415 5:0.999959 6:1 7:-0.999984 8:0.987562 
-2048 -2048 -2048 1:0.689226 2:-0.989361 5:0.999955 6:1 7:-0.999988 8:0.986525 
-2048 -2048 -2048 1:0.759401 2:-0.994408 5:0.999952 6:1 7:-0.999992 8:0.985585 
-870.873518417211 -2048 -2048 1:0.834184 2:-0.999769 5:0.999949 6:1 7:-0.999996 8:0.984595 
-2048 -2048 -2048 1:0.980686 2:-0.997786 5:0.99995 6:1 7:-0.999996 8:0.984679 
-2048 -2048 -2048 1:0.940719 2:-0.994398 5:0.999951 6:1 7:-0.999995 8:0.984961 
-2048 -2048 -2048 1:0.902477 2:-0.990721 5:0.999953 6:1 7:-0.999994 8:0.985295 
-2048 -2048 -2048 1:0.862172 2:-0.987509 5:0.999955 6:1 7:-0.999994 8:0.985556 
-2048 -2048 -2048 1:0.82475 2:-0.98371 5:0.999957 6:1 7:-0.999993 8:0.985869 
-2048 -2048 -2048 1:0.784324 2:-0.980451 5:0.999959 6:1 7:-0.999992 8:0.986109 
-2048 -2048 -2048 1:0.618146 2:-0.978504 5:0.99996 6:1 7:-0.999992 8:0.986247 
-2048 -2048 -2048 1:0.659489 2:-0.983436 5:0.999957 6:1 7:-0.999996 8:0.985209 
-2048 -2048 -2048 1:0.729253 2:-0.988605 5:0.999953 6:1 7:-1 8:0.984215 
